tree
version=v3
num_class=1
num_tree_per_iteration=1
label_index=0
max_feature_idx=4
objective=regression
feature_names=16.127 21.5878 17.3193 16.8287 18.6518
feature_infos=[14.1153:76.974699999999999] [14.1153:76.974699999999999] [14.1153:76.974699999999999] [14.1153:76.974699999999999] [14.1153:76.974699999999999]
tree_sizes=2737 2774 2776 2779 2791 2804 2767 2796 2796 2794 2794 2798 2820 2809 2813 2789 2801 2780 2790 2789

Tree=0
num_leaves=31
num_cat=0
split_feature=4 4 4 4 4 4 4 4 4 4 4 4 4 4 4 4 4 4 4 4 4 4 4 4 4 4 4 4 4 4
split_gain=1.96396e+06 347731 305507 80829.6 58079.9 49645.9 43431.5 16003.8 9815.09 7854.6 6947.79 6384.62 5517.79 5368.46 5321.51 2732.68 2185.37 2118.65 1719.82 1136.36 1085.75 1063.68 1034.66 1001.98 917.739 744.76 630.54 517.593 513.012 424.76
threshold=40.782800000000002 32.026500000000006 51.063800000000008 62.762600000000006 27.237100000000002 36.355750000000008 45.483750000000008 55.519100000000002 23.938750000000002 29.614350000000005 34.44700000000001 48.473900000000008 38.827550000000009 68.958900000000014 43.464350000000003 58.752350000000007 53.537700000000008 21.636100000000003 25.606300000000001 46.791100000000007 37.363350000000004 30.887350000000001 41.960750000000012 33.286750000000005 28.553600000000003 73.716300000000018 35.491500000000009 39.587200000000003 19.800400000000003 44.277000000000008
decision_type=2 2 2 2 2 2 2 2 2 2 2 2 2 2 2 2 2 2 2 2 2 2 2 2 2 2 2 2 2 2
left_child=1 4 6 7 8 10 14 16 17 24 23 19 20 -5 22 -9 -4 28 -10 -8 -7 -11 -2 -3 -6 -15 -12 -14 -1 -16
right_child=2 5 3 13 9 12 11 15 18 21 26 -13 27 25 29 -17 -18 -19 -20 -21 -22 -23 -24 -25 -26 -27 -28 -29 -30 -31
leaf_value=33.949797721453251 38.384696768692201 36.658650288222674 40.556482107248982 43.179894356254479 35.771841157106785 37.48956303198409 39.313884560797007 41.468644753801343 35.185352551161756 36.222953401540302 37.114653998978426 40.06172444430382 37.934221832556794 44.447985639449733 38.878504580660731 42.109379242629245 41.001475551038666 34.859822156151388 35.497151379779012 39.626642827728887 37.733558257489122 36.446944947554385 38.648197978498224 36.881043333108252 35.998774842422961 45.146912446566169 37.317479683106171 38.133736246536586 34.451905835881767 39.093733230311763
leaf_weight=120 1132 1753 1092 125 1486 1239 892 895 1254 1763 1365 1246 878 124 632 379 741 873 1624 970 1774 1634 1259 1507 1370 120 1113 1276 253 874
leaf_count=120 1132 1753 1092 125 1486 1239 892 895 1254 1763 1365 1246 878 124 632 379 741 873 1624 970 1774 1634 1259 1507 1370 120 1113 1276 253 874
internal_value=37.6716 36.5697 39.9143 41.4472 35.7409 37.3583 39.1537 41.1148 35.1583 36.1252 36.9533 39.7113 37.808 44.2457 38.7089 41.6593 40.7364 34.6894 35.3613 39.4768 37.6332 36.3307 38.5234 36.7615 35.8807 44.7917 37.2058 38.0524 34.2904 39.0034
internal_weight=0 21282 10481 3476 10377 10905 7005 3107 4124 6253 5738 3108 5167 369 3897 1274 1833 1246 2878 1862 3013 3397 2391 3260 2856 244 2478 2154 373 1506
internal_count=31763 21282 10481 3476 10377 10905 7005 3107 4124 6253 5738 3108 5167 369 3897 1274 1833 1246 2878 1862 3013 3397 2391 3260 2856 244 2478 2154 373 1506
is_linear=0
shrinkage=1


Tree=1
num_leaves=31
num_cat=0
split_feature=4 4 4 4 4 4 4 4 4 4 4 4 4 4 4 4 4 4 4 4 4 4 4 4 4 2 4 4 4 4
split_gain=1.25726e+06 215180 204273 54147.8 34352.3 32595.1 26208.7 12212.1 5849.92 4744 4444.02 4383.02 3777.11 3435.81 2621.05 2220.48 1611.05 1482.14 813.075 697.139 563.443 558.113 547.669 527.266 505.82 502.547 496.001 484.946 476.647 347.472
threshold=40.524350000000005 31.596700000000002 50.499150000000007 62.762600000000006 35.793150000000004 27.019400000000005 44.778050000000007 55.176250000000003 23.208200000000005 37.889350000000007 47.636800000000001 29.232000000000003 33.854050000000008 68.958900000000014 42.387400000000007 58.066850000000009 52.679950000000012 25.156150000000004 19.800400000000003 39.587200000000003 28.024050000000006 46.390450000000008 30.341450000000005 49.440650000000005 43.800250000000005 32.651250000000012 32.562000000000005 36.765800000000006 73.716300000000018 60.611650000000004
decision_type=2 2 2 2 2 2 2 2 2 2 2 2 2 2 2 2 2 2 2 2 2 2 2 2 2 2 2 2 2 2
left_child=1 5 6 7 12 8 14 16 18 27 21 20 26 -5 -2 -9 -4 -10 -1 -11 -7 -8 -13 -12 -16 -14 -3 -6 -15 -17
right_child=2 4 3 13 9 11 10 15 17 19 23 22 25 28 24 29 -18 -19 -20 -21 -22 -23 -24 -25 -26 -27 -28 -29 -30 -31
leaf_value=-2.9774214172363282 0.58144082678966569 -0.8880388572617437 2.2009760419894486 4.4066560577392577 -0.24389009277838697 -1.588074286622098 1.2356798429416953 2.9676033359103737 -2.0699671663047776 0.14649937300910448 1.7031398545371161 -1.223690378712802 -0.64655537690160059 5.4211291036298199 0.83535161980809736 3.3953246174512879 2.5646471170429335 -1.7850466512113656 -2.4166139583217907 0.34895693482581014 -1.4008460734459049 1.4596673160427462 -1.0591885161415864 1.9547683944740144 1.0464039017828672 -0.42265404354456959 -0.72805721094137021 -0.071019754944607313 5.9802705256144213 3.7775710218534702
leaf_weight=120 1768 1378 975 125 1236 1135 1123 900 1258 2027 990 1494 503 124 1129 379 974 1741 748 1024 1483 737 1767 502 760 1977 1772 1367 120 127
leaf_count=120 1768 1378 975 125 1236 1135 1123 900 1258 2027 990 1494 503 124 1129 379 974 1741 748 1024 1483 737 1767 502 760 1977 1772 1367 120 127
internal_value=0 -0.897541 1.76272 2.95973 -0.302985 -1.58592 1.12672 2.70681 -2.0369 0.0452342 1.53068 -1.28928 -0.652689 5.25931 0.756458 3.15606 2.38272 -1.90456 -2.49414 0.21445 -1.48202 1.32443 -1.13455 1.7878 0.920264 -0.468066 -0.798043 -0.153105 5.69612 3.49126
internal_weight=0 21030 10733 3724 11284 9746 7009 3355 3867 5654 3352 5879 5630 369 3657 1406 1949 2999 868 3051 2618 1860 3261 1492 1889 2480 3150 2603 244 506
internal_count=31763 21030 10733 3724 11284 9746 7009 3355 3867 5654 3352 5879 5630 369 3657 1406 1949 2999 868 3051 2618 1860 3261 1492 1889 2480 3150 2603 244 506
is_linear=0
shrinkage=0.2


Tree=2
num_leaves=31
num_cat=0
split_feature=4 4 4 4 4 4 4 4 4 4 4 4 4 4 4 4 4 4 4 4 2 4 4 4 2 4 4 3 2 4
split_gain=805339 147509 121190 31337.2 27955.6 18522.9 18084.3 5792.43 5304.67 3026.52 2576.2 2513.2 2398.63 2198.92 2183.67 1458.42 946.791 733.558 710.753 549.02 354.673 342.985 312.098 305.053 294.003 282.325 264.505 262.084 252.978 242.037
threshold=41.035600000000009 32.562000000000005 51.5623 62.762600000000006 27.826750000000001 46.006900000000009 36.663650000000011 56.248900000000013 24.699300000000004 29.985200000000003 34.837600000000002 43.641600000000004 48.711050000000007 68.958900000000014 38.827550000000009 22.161400000000004 53.860500000000009 59.576150000000005 26.169350000000005 31.416100000000004 32.13130000000001 42.247150000000012 47.212200000000003 73.716300000000018 27.691600000000005 37.686950000000003 40.14605000000001 19.781650000000003 27.132300000000004 33.678750000000008
decision_type=2 2 2 2 2 2 2 2 2 2 2 2 2 2 2 2 2 2 2 2 2 2 2 2 2 2 2 2 2 2
left_child=1 4 5 7 8 11 10 16 15 24 20 21 22 -5 25 27 -4 -9 -10 28 -3 -2 -7 -15 -6 -8 -16 -1 -11 -22
right_child=2 6 3 13 9 12 14 17 18 19 -12 -13 -14 23 26 -17 -18 -19 -20 -21 29 -23 -24 -25 -26 -27 -28 -29 -30 -31
leaf_value=-2.4025941295283184 0.49802400401721469 -0.6439551266415745 1.9028490409117478 3.5253247390747071 -1.2010624169517892 1.1122243307722959 -0.075032414503706013 2.5338700203845903 -1.5198835567881666 -1.1259730819960436 -0.25162570558691777 0.89408003341459663 1.5694897584611622 4.3369032582929057 0.20747732764654114 -1.7284573781984207 2.1894228832244873 2.9253722994935281 -1.3234769417731533 -0.71988685528621266 -0.56049466762335021 0.65323443022132244 1.2890158666656653 4.7842160669962572 -1.0480179608589191 0.056128388533784483 0.34503059451906126 -2.0554888788859049 -0.85607303052787742 -0.42711620489614516
leaf_weight=112 1139 807 975 125 664 737 1236 768 1278 150 2372 1755 1351 124 1513 1231 875 255 1741 1620 1013 1139 872 120 2059 1400 887 390 1879 1176
leaf_count=112 1139 807 975 125 664 737 1236 768 1278 150 2372 1755 1351 124 1513 1231 875 255 1741 1620 1013 1139 872 120 2059 1400 887 390 1879 1176
internal_value=0 -0.693278 1.46166 2.47241 -1.19958 0.993065 -0.151942 2.24957 -1.56672 -0.925777 -0.407339 0.714206 1.37301 4.20745 0.120293 -1.84562 2.03839 2.63146 -1.40662 -0.806707 -0.530621 0.575629 1.20804 4.55689 -1.08534 -0.0053719 0.258315 -2.13293 -0.876026 -0.48884
internal_weight=0 21528 10235 3242 11124 6993 10404 2873 4752 6372 5368 4033 2960 369 5036 1733 1850 1023 3019 3649 2996 2278 1609 244 2723 2636 2400 502 2029 2189
internal_count=31763 21528 10235 3242 11124 6993 10404 2873 4752 6372 5368 4033 2960 369 5036 1733 1850 1023 3019 3649 2996 2278 1609 244 2723 2636 2400 502 2029 2189
is_linear=0
shrinkage=0.2


Tree=3
num_leaves=31
num_cat=0
split_feature=4 4 4 4 4 4 4 4 4 4 4 4 4 4 4 4 4 4 4 4 3 2 3 4 3 3 2 3 2 2
split_gain=515417 94507.5 77561.7 20055.8 15390.8 14009.3 11865.3 3715.18 2562.53 2484.26 2091.19 1936.36 1717.58 1407.31 1102.72 754.501 669.849 466.193 397.662 363.223 342.477 297.004 294.992 293.127 282.268 266.356 233.115 213.613 211.9 186.707
threshold=41.035600000000009 32.026500000000006 51.5623 62.762600000000006 27.019400000000005 36.355750000000008 45.483750000000008 56.686600000000006 22.920950000000001 29.134550000000001 48.030100000000012 34.44700000000001 38.827550000000009 68.958900000000014 43.464350000000003 54.171600000000005 24.844900000000006 30.713800000000003 49.945200000000007 59.576150000000005 20.920950000000001 26.025300000000005 32.029300000000013 37.162100000000002 24.368750000000002 40.52535000000001 31.930600000000002 28.144550000000006 73.692900000000023 39.345400000000005
decision_type=2 2 2 2 2 2 2 2 2 2 2 2 2 2 2 2 2 2 2 2 2 2 2 2 2 2 2 2 2 2
left_child=1 4 6 7 8 11 14 15 20 21 -8 22 23 -5 25 -4 -10 27 -12 -9 -1 -6 -3 -7 -18 -2 -13 -11 -15 -14
right_child=2 5 3 13 9 12 10 19 16 17 18 26 29 28 -16 -17 24 -19 -20 -21 -22 -23 -24 -25 -26 -27 -28 -29 -30 -31
leaf_value=-1.8545483820778985 0.31708655907107841 -0.56834699781484654 1.5370297827150512 2.8202596542358402 -1.1325442366545209 -0.10890046814679025 0.90265725172639633 2.0578363506910007 -1.3492944061090906 -0.92165630243019381 1.1379659504038695 -0.41879846884854022 0.14226214256851716 3.4544929728788492 0.67637905374887941 1.7855248229125751 -1.3625455714698531 -0.6312966535603366 1.3322232623922414 2.3402977546991086 -1.553231867569596 -0.93067101741192371 -0.43282356230561625 0.02370919109274644 -1.1287919939054472 0.48962065764955653 -0.21439547867786179 -0.74181813299354338 3.8273668304443365 0.25497923164754455
leaf_weight=210 454 880 1104 125 337 996 1610 637 1120 309 1007 248 1029 119 1506 877 234 1882 725 255 536 2160 2380 2017 1767 1691 2230 1822 125 1371
leaf_count=210 454 880 1104 125 337 996 1610 637 1120 309 1007 248 1029 119 1506 877 234 1882 725 255 536 2160 2380 2017 1767 1691 2230 1822 125 1371
internal_value=0 -0.554623 1.16933 1.97793 -0.989015 -0.150382 0.794452 1.79965 -1.30504 -0.801291 1.06675 -0.368112 0.0804214 3.36596 0.545202 1.64704 -1.22545 -0.703834 1.21928 2.13858 -1.63805 -0.957916 -0.469407 -0.0201273 -1.15613 0.453103 -0.234852 -0.767895 3.64551 0.206652
internal_weight=0 21528 10235 3242 10377 11151 6993 2873 3867 6510 3342 5738 5413 369 3651 1981 3121 4013 1732 892 746 2497 3260 3013 2001 2145 2478 2131 244 2400
internal_count=31763 21528 10235 3242 10377 11151 6993 2873 3867 6510 3342 5738 5413 369 3651 1981 3121 4013 1732 892 746 2497 3260 3013 2001 2145 2478 2131 244 2400
is_linear=0
shrinkage=0.2


Tree=4
num_leaves=31
num_cat=0
split_feature=4 4 4 4 4 4 4 4 4 4 4 4 3 4 4 4 4 2 0 2 3 2 3 0 0 4 4 0 3 4
split_gain=330372 57183.4 53379.2 14437.4 8810.68 8358.44 7508.64 3548.88 1625.36 1283.07 1105.87 1054.97 927.828 811.838 776.372 768.973 455.699 294.159 278.939 260.188 249.571 218.471 209.311 204.274 197.225 174.31 152.462 147.633 138.332 128.974
threshold=40.14605000000001 50.204600000000006 31.596700000000002 62.762600000000006 26.420400000000004 35.491500000000009 44.601300000000009 54.829050000000002 29.034400000000002 22.562400000000004 37.889350000000007 46.990500000000004 68.958900000000014 41.82800000000001 33.197300000000006 58.066850000000009 52.128050000000009 24.705300000000005 40.14605000000001 26.025300000000005 28.144550000000006 34.644150000000003 35.982800000000005 31.145400000000006 19.781650000000003 48.972450000000002 25.156150000000004 73.692900000000023 26.793450000000004 30.341450000000005
decision_type=2 2 2 2 2 2 2 2 2 2 2 2 2 2 2 2 2 2 2 2 2 2 2 2 2 2 2 2 2 2
left_child=2 6 4 7 9 14 13 16 19 24 21 -8 -5 -2 28 -9 -3 -11 -15 -6 -10 -7 -12 -16 -1 -13 -19 -14 -4 -22
right_child=1 3 5 12 8 10 11 15 20 17 22 25 27 18 23 -17 -18 26 -20 -21 29 -23 -24 -25 -26 -27 -28 -29 -30 -31
leaf_value=-1.6045334539915388 0.25467605717488129 1.0873311980658373 -0.93742054917595619 2.2496769805908206 -0.92105951090323979 -0.18809095694188868 0.6537944000824516 1.5053178358637345 -0.72968940296283014 -1.1081640416858787 -0.080756124714389449 0.83025402837297468 2.7616153383255004 0.30809339233784544 -0.39575813773685614 1.8067406703360938 1.2825821628272265 -1.0352705132820843 0.47640661638204929 -0.7605850098633411 -0.60933382646047141 -0.055214276614014381 0.11218983742185462 -0.2588746065000937 -1.2915107206215688 0.96225189205691442 -0.91406299410873515 3.0727980644472184 -0.43345600105773818 -0.52733086679411389
leaf_weight=95 1641 844 22 125 482 627 1624 1023 423 963 248 1100 120 506 530 506 1103 764 1777 2502 1447 2350 2414 2461 528 629 909 124 2243 1633
leaf_count=95 1641 844 22 125 482 627 1624 1023 423 963 248 1100 120 506 530 506 1103 764 1777 2502 1447 2350 2414 2461 528 629 909 124 2243 1633
internal_value=0 0.879416 -0.472766 1.5033 -0.812823 -0.168572 0.549772 1.37703 -0.678038 -1.08111 0.000551901 0.769549 2.69277 0.361976 -0.35002 1.60507 1.19794 -1.0201 0.439102 -0.786506 -0.58564 -0.0832001 0.0942144 -0.28313 -1.33924 0.878274 -0.969414 2.91976 -0.438351 -0.565856
internal_weight=0 11122 20641 3845 9746 10895 7277 3476 6487 3259 5639 3353 369 3924 5256 1529 1947 2636 2283 2984 3503 2977 2662 2991 623 1729 1673 244 2265 3080
internal_count=31763 11122 20641 3845 9746 10895 7277 3476 6487 3259 5639 3353 369 3924 5256 1529 1947 2636 2283 2984 3503 2977 2662 2991 623 1729 1673 244 2265 3080
is_linear=0
shrinkage=0.2


Tree=5
num_leaves=31
num_cat=0
split_feature=4 4 4 4 4 4 4 4 3 4 4 4 4 4 4 4 4 3 4 3 1 3 2 2 0 3 2 4 0 3
split_gain=210517 35507.5 35326 9381.91 6131.4 5240.92 4080.32 1836.99 1423.43 903.553 843.307 802.079 660.576 657.965 460.803 313.694 309.073 245.043 238.064 199.188 198.325 158.71 157.877 121.612 119.127 112.465 108.062 99.7985 98.4895 97.8933
threshold=40.393850000000008 31.416100000000004 50.204600000000006 60.611650000000004 35.595600000000012 26.671950000000006 44.601300000000009 54.481000000000009 68.958900000000014 21.636100000000003 38.177650000000007 28.553600000000003 33.678750000000008 47.212200000000003 42.682400000000008 57.142750000000014 24.363450000000004 28.246450000000006 52.961850000000005 35.792500000000011 34.649750000000004 24.142250000000001 32.216950000000004 24.705300000000005 39.471250000000005 73.716300000000018 28.650550000000006 48.249850000000002 39.028650000000006 35.49325000000001
decision_type=2 2 2 2 2 2 2 2 2 2 2 2 2 2 2 2 2 2 2 2 2 2 2 2 2 2 2 2 2 2
left_child=1 5 6 7 12 9 14 18 -5 -1 20 21 22 -8 -2 -9 -11 -13 -4 -12 26 -7 -3 -18 -16 -10 -6 -15 -21 -22
right_child=2 4 3 8 10 11 13 15 25 16 19 17 -14 27 24 -17 23 -19 -20 28 29 -23 -24 -25 -26 -27 -28 -29 -30 -31
leaf_value=-1.1420403896432536 0.23889517298467788 -0.39381181304530949 0.89921768685855707 1.6713486619697986 -0.53019461202036056 -0.98010288962611447 0.52071969419107722 1.1689258641025189 2.2037537807371557 -0.89926306063746131 -0.11647363601368853 -0.60310828453018839 -0.20439959941567165 0.63643187935013446 0.24265839334727979 1.3556756208388787 -0.85981292406673693 -0.4665743391322395 1.0510209791423057 0.069878120941026398 -0.12657705207026934 -0.63280617809312678 -0.30326326356186861 -0.74149588418599743 0.40731060317402162 2.4715583309531213 -0.12981463083473579 0.73914400327463481 0.15214934101371461 -0.011990892148942632
leaf_weight=381 2118 1363 1268 258 28 54 1722 867 123 1130 160 628 2474 620 204 615 449 3231 613 1081 346 2080 1771 1537 1270 128 729 971 1261 2160
leaf_count=381 2118 1363 1268 258 28 54 1722 867 123 1130 160 628 2474 620 204 615 449 3231 613 1081 346 2080 1771 1537 1270 128 729 971 1261 2160
internal_value=0 -0.371106 0.717459 1.20101 -0.132766 -0.656737 0.446306 1.07989 2.00124 -0.851307 0.0120705 -0.543203 -0.281656 0.606392 0.298654 1.24642 -0.815758 -0.488793 0.948689 0.0994256 -0.0549115 -0.641594 -0.342644 -0.768245 0.384523 2.34032 -0.144624 0.699118 0.114175 -0.0278116
internal_weight=0 20863 10777 3872 11373 9490 6905 3363 509 3497 5765 5993 5608 3313 3592 1482 3116 3859 1881 2502 3263 2134 3134 1986 1474 251 757 1591 2342 2506
internal_count=31640 20863 10777 3872 11373 9490 6905 3363 509 3497 5765 5993 5608 3313 3592 1482 3116 3859 1881 2502 3263 2134 3134 1986 1474 251 757 1591 2342 2506
is_linear=0
shrinkage=0.2


Tree=6
num_leaves=31
num_cat=0
split_feature=4 4 4 4 4 4 4 4 2 2 4 4 4 4 4 4 2 4 4 0 4 0 3 2 3 3 0 0 3 1
split_gain=134750 23695.6 21696.4 6004.42 4911.91 2563.28 2408.26 1175.68 919.708 787.046 717.582 362.75 343.303 315.011 305.957 270.516 235.647 200.764 173.182 156.527 150.524 136.139 123.194 99.013 93.6483 92.0792 82.4737 80.6217 78.4969 76.8887
threshold=40.655550000000012 32.722650000000009 50.204600000000006 60.611650000000004 27.3627 36.663650000000011 45.127400000000009 54.481000000000009 68.924350000000018 22.918900000000004 30.155450000000005 34.837600000000002 42.835150000000006 47.833650000000006 38.936050000000009 25.325800000000005 30.077350000000006 57.142750000000014 52.128050000000009 34.149650000000008 19.800400000000003 26.014350000000004 34.149650000000008 39.698 48.25480000000001 38.395000000000003 19.781650000000003 36.957650000000008 30.713000000000005 73.692900000000023
decision_type=2 2 2 2 2 2 2 2 2 2 2 2 2 2 2 2 2 2 2 2 2 2 2 2 2 2 2 2 2 2
left_child=1 4 6 7 9 11 12 18 -5 20 21 28 -2 -8 19 -11 -12 -9 -4 -7 26 -6 -13 -14 -20 -16 -1 -15 -3 -10
right_child=2 5 3 8 10 14 13 17 29 15 16 22 23 27 25 -17 -18 -19 24 -21 -22 -23 -24 -25 -26 -27 -28 -29 -30 -31
leaf_value=-1.229227517119476 0.201566674902876 -0.32489470796543174 0.69525493117314685 1.3358195266982382 -0.55951711848433239 -0.10631583463525894 0.44527384658087271 0.93514067606426865 1.7632992903391522 -0.67958901032081875 -0.40942673375080263 -0.19242495785577818 0.1603265466416649 0.20721449050242488 0.028232972020753106 -0.56845519075309137 -0.29316560489318516 1.0845404980046964 1.2156013076720031 0.023038045848878471 -0.80687286695682037 -0.43633269692458693 -0.079826749735349548 0.33752200254487197 0.80724310910431729 0.13162613577920451 -0.89807374535844875 0.58523138221151683 -0.20032085192596091 1.9846892532348634
leaf_weight=56 1986 220 895 258 406 446 1713 867 126 1601 944 491 137 23 454 1935 2669 615 23 2324 602 3091 1865 1591 963 1429 65 1201 2519 125
leaf_count=56 1986 220 895 258 406 446 1713 867 126 1601 944 491 137 23 454 1935 2669 615 23 2324 602 3091 1865 1591 963 1429 65 1201 2519 125
internal_value=0 -0.291621 0.584425 0.960808 -0.487796 -0.0628239 0.365307 0.863915 1.60099 -0.65765 -0.386051 -0.160833 0.258286 0.500641 0.044495 -0.618773 -0.323542 0.997139 0.758951 0.00221067 -0.847786 -0.450634 -0.103293 0.323474 0.816769 0.106698 -1.05133 0.578128 -0.210327 1.87355
internal_weight=0 21117 10523 3872 11369 9748 6651 3363 509 4259 7110 5095 3714 2937 4653 3536 3613 1482 1881 2770 723 3497 2356 1728 986 1883 121 1224 2739 251
internal_count=31640 21117 10523 3872 11369 9748 6651 3363 509 4259 7110 5095 3714 2937 4653 3536 3613 1482 1881 2770 723 3497 2356 1728 986 1883 121 1224 2739 251
is_linear=0
shrinkage=0.2


Tree=7
num_leaves=31
num_cat=0
split_feature=4 4 4 4 4 4 4 4 4 4 4 1 2 4 4 4 0 4 3 3 3 4 0 3 1 3 2 0 3 4
split_gain=86328.8 16443.4 12925.6 4137.76 2379.72 1828.13 1790.39 1211.5 352.183 302.479 302.236 292.405 273.151 266.975 253.126 234.56 142.11 135.42 130.146 99.3545 95.2821 84.6221 82.2051 82.037 105.994 75.2439 68.9959 68.7178 67.999 63.2704
threshold=39.587200000000003 49.440650000000005 30.805550000000004 62.762600000000006 35.191950000000006 44.277000000000008 26.169350000000005 55.837650000000004 20.944600000000005 28.553600000000003 53.253000000000007 62.737550000000006 35.891400000000004 32.912150000000004 41.56430000000001 46.390450000000008 23.207600000000003 37.577650000000006 24.142250000000001 28.024050000000006 73.716300000000018 58.752350000000007 36.757750000000009 31.845550000000006 28.551400000000005 41.295700000000004 29.982950000000006 40.652150000000006 40.152300000000004 23.479900000000004
decision_type=2 2 2 2 2 2 2 2 2 2 2 2 2 2 2 2 2 2 2 2 2 2 2 2 2 2 2 2 2 2
left_child=2 5 6 7 13 14 8 10 -1 18 -3 -5 23 26 27 22 -10 25 -8 -11 -13 -9 -7 24 -6 -14 -4 -2 -16 -18
right_child=1 3 4 11 12 15 9 21 16 19 -12 20 17 -15 28 -17 29 -19 -20 -21 -22 -23 -24 -25 -26 -27 -28 -29 -30 -31
leaf_value=-0.78660484066931535 0.081034708009191422 0.56345285559402247 -0.30084787161408683 0.95459722432223237 0.13942172914976256 0.048705996921721922 -0.67805656157372718 0.82024606165214975 -0.63229301290243922 -0.4084516513227951 0.70229927563919237 1.3664284147360386 -0.02220857833332213 -0.15687913801919831 0.11589597515615763 0.41787196479409056 -0.58424073388372666 0.049254530315332591 -0.41247952761405032 -0.31071990584769149 1.5901142097473144 0.9363482100690933 0.31751154493434919 -0.071673956627628641 -0.32729015241476517 -0.40303901675201603 -0.22598045848647366 0.1551986988136998 0.2256685127622125 -0.50091875071467029
leaf_weight=256 1087 1764 620 55 24 47 76 756 549 500 973 195 1760 2969 255 1700 462 1986 2560 2479 125 376 1433 1498 103 21 2392 925 1966 1728
leaf_count=256 1087 1764 620 55 24 47 76 756 549 500 973 195 1760 2969 255 1700 462 1986 2560 2479 125 376 1433 1498 103 21 2392 925 1966 1728
internal_value=0 0.432332 -0.252529 0.746268 -0.112574 0.2526 -0.437397 0.684787 -0.562273 -0.370789 0.612813 1.38059 -0.016221 -0.199439 0.166516 0.36719 -0.541305 0.0133445 -0.420137 -0.327123 1.45381 0.85881 0.308975 -0.0847584 -0.239093 -0.026699 -0.241391 0.115131 0.213065 -0.518496
internal_weight=0 11657 19983 4244 11373 7413 8610 3869 2995 5615 2737 375 5392 5981 4233 3180 2739 3767 2636 2979 320 1132 1480 1625 127 1781 3012 2012 2221 2190
internal_count=31640 11657 19983 4244 11373 7413 8610 3869 2995 5615 2737 375 5392 5981 4233 3180 2739 3767 2636 2979 320 1132 1480 1625 127 1781 3012 2012 2221 2190
is_linear=0
shrinkage=0.2


Tree=8
num_leaves=31
num_cat=0
split_feature=4 4 4 4 4 4 4 4 4 4 4 2 4 4 4 0 1 3 0 1 2 1 4 0 3 3 3 0 3 4
split_gain=55276.5 9666.38 9104.1 2363.64 1574.63 1363.7 1317.21 555.737 292.076 277.885 254.093 226.376 218.015 160.407 122.969 114.755 114.14 111.392 102.052 100.693 94.5611 86.3657 80.307 69.9613 71.9098 69.9351 67.5815 57.2895 52.4959 52.4508
threshold=40.14605000000001 50.791350000000008 31.243600000000004 62.762600000000006 35.289450000000009 46.006900000000009 26.019100000000005 56.248900000000013 42.682400000000008 28.246950000000002 37.686950000000003 21.622950000000007 68.958900000000014 33.678750000000008 53.253000000000007 47.439600000000006 62.737550000000006 24.542550000000002 35.391000000000005 27.3627 28.941500000000005 36.148550000000007 23.479900000000004 40.899450000000009 34.936550000000004 30.713000000000005 33.379400000000011 32.216950000000004 31.930850000000003 60.611650000000004
decision_type=2 2 2 2 2 2 2 2 2 2 2 2 2 2 2 2 2 2 2 2 2 2 2 2 2 2 2 2 2 2
left_child=2 5 6 7 13 8 11 14 23 17 19 -1 16 25 -3 -7 -5 -8 -10 -6 -11 -12 -13 24 -2 -4 -21 -26 -19 -9
right_child=1 3 4 12 10 15 9 29 18 20 21 22 -14 -15 -16 -17 -18 28 -20 26 -22 -23 -24 -25 27 -27 -28 -29 -30 -31
leaf_value=-0.60455402730075625 0.43165804769681854 0.4728428360404755 -0.23788751002265329 0.63906379581793493 -0.45957476950210074 0.30014344971580054 -0.53545592673813347 0.67982894872175159 -0.022164792503629415 -0.3032670435885878 -0.028927486074484716 -0.48926815508606558 1.2129492154561852 -0.10740038891528514 0.5665175021529536 0.38561856575288656 1.0344405157864094 -0.3314212322664597 0.222804805534638 -0.14266346666532068 -0.23708807615246835 0.057534327187793291 -0.41004888863188543 0.15053448154737381 -0.1492668827487664 -0.16404983277682919 -0.030692297939302601 0.083626048933633956 -0.63512268481047263 0.81423767111194667
leaf_weight=348 23 1143 631 46 23 1111 116 871 70 1262 577 714 249 2095 1100 1446 80 2240 2409 234 2736 2321 1808 1234 44 2746 2744 1062 23 134
leaf_count=348 23 1143 631 46 23 1111 116 871 70 1262 577 714 249 2095 1100 1446 80 2240 2409 234 2736 2321 1808 1234 44 2746 2744 1062 23 134
internal_value=0 0.361388 -0.193448 0.629049 -0.0736012 0.230326 -0.340823 0.574159 0.16793 -0.290184 -0.00192018 -0.453342 1.10447 -0.150876 0.518782 0.34848 0.890097 -0.344306 0.215888 -0.0427101 -0.257978 0.0403195 -0.432477 0.117618 0.0816397 -0.177847 -0.0394906 0.0743609 -0.334508 0.69775
internal_weight=0 11022 20618 3623 11371 7399 9247 3248 4842 6377 5899 2870 375 5472 2243 2557 126 2379 2479 3001 3998 2898 2522 2363 1129 3377 2978 1106 2263 1005
internal_count=31640 11022 20618 3623 11371 7399 9247 3248 4842 6377 5899 2870 375 5472 2243 2557 126 2379 2479 3001 3998 2898 2522 2363 1129 3377 2978 1106 2263 1005
is_linear=0
shrinkage=0.2


Tree=9
num_leaves=31
num_cat=0
split_feature=4 4 4 4 4 4 4 0 4 4 4 4 3 2 0 0 4 1 0 3 2 3 1 0 4 0 3 0 3 0
split_gain=35449.7 6593.76 5459.9 1397.54 1342.97 879.14 745.408 280.221 242.925 172.078 149.653 139.53 133.827 123.439 110.722 106.59 104.069 73.0499 69.959 66.1276 74.5173 64.1326 61.7782 57.1215 56.8555 56.6142 55.432 78.9925 72.6655 46.5778
threshold=41.035600000000009 32.912150000000004 51.839450000000006 27.826750000000001 62.762600000000006 46.578350000000007 37.064100000000003 25.158600000000003 56.248900000000013 30.805550000000004 43.951750000000011 68.958900000000014 47.638900000000007 34.446400000000004 37.978150000000007 47.83400000000001 20.944600000000005 62.737550000000006 29.228050000000003 34.645900000000005 28.941500000000005 41.427800000000012 50.771850000000008 39.471250000000005 22.562400000000004 30.709750000000003 43.464850000000006 41.414250000000003 42.246050000000004 42.524400000000007
decision_type=2 2 2 2 2 2 2 2 2 2 2 2 2 2 2 2 2 2 2 2 2 2 2 2 2 2 2 2 2 2
left_child=1 3 5 7 8 10 13 16 12 19 21 17 -4 -3 25 26 -1 -6 -15 20 -5 -2 29 -12 -9 -8 28 -28 -7 -14
right_child=2 6 4 9 11 15 14 24 -10 -11 23 -13 22 18 -16 -17 -18 -19 -20 -21 -22 -23 -24 -25 -26 -27 27 -29 -30 -31
leaf_value=-0.51666925932691132 0.075932918494301185 -0.11244226128349846 0.94893479540944092 -0.2517101866849793 0.51125102820603752 0.21117705515452792 -0.12948837604065586 -0.4475852387754814 0.55820009254234193 -0.15416318613564386 0.075163073513445491 0.97035936524111577 0.074047646056050839 -0.32036828767312203 0.059926914666058512 0.33191450636255748 -0.37429040085470128 0.82755241267383095 -0.047349206191150517 -0.50888488025915235 -0.19403029292609947 0.14465571544400987 0.44647849860740829 0.20761091183114197 -0.28783632274606202 0.006047571223565573 0.090510777457957228 0.25987411684121875 0.6105971158335084 0.3698078061673894
leaf_weight=236 805 2191 20 1431 46 35 133 92 1005 3012 141 249 23 38 2710 1635 1581 80 3115 31 2396 1670 1400 1708 2843 1686 126 876 38 288
leaf_count=236 805 2191 20 1431 46 35 133 92 1005 3012 141 249 23 38 2710 1635 1581 80 3115 31 2396 1670 1400 1708 2843 1686 126 876 38 288
internal_value=0 -0.145571 0.308015 -0.247668 0.528637 0.210439 -0.0253876 -0.331057 0.479988 -0.189987 0.154463 0.883577 0.434579 -0.0759782 0.034307 0.299752 -0.392783 0.712077 -0.0506396 -0.217955 -0.215598 0.122303 0.428567 0.197511 -0.292844 -0.00386242 0.250835 0.238577 0.419094 0.347935
internal_weight=0 21495 10145 11622 3111 7034 9873 4752 2736 6870 4324 375 1731 5344 4529 2710 1817 126 3153 3858 3827 2475 1711 1849 2935 1819 1075 1002 73 311
internal_count=31640 21495 10145 11622 3111 7034 9873 4752 2736 6870 4324 375 1731 5344 4529 2710 1817 126 3153 3858 3827 2475 1711 1849 2935 1819 1075 1002 73 311
is_linear=0
shrinkage=0.2


Tree=10
num_leaves=31
num_cat=0
split_feature=4 4 4 4 4 4 4 4 4 2 0 0 0 2 2 3 3 4 2 3 2 0 3 4 3 0 3 3 0 4
split_gain=23233.1 4186.31 3525.4 1188.37 682.076 568.3 468.969 199.048 175.078 148.109 144.366 127.146 118.565 114.725 68.818 66.234 60.5302 60.0438 58.7055 54.6367 53.885 48.2765 57.5928 43.9196 42.1766 38.5898 71.3741 57.0205 37.5114 36.0016
threshold=39.931300000000007 49.440650000000005 30.887350000000001 59.576150000000005 34.547000000000004 26.019100000000005 44.277000000000008 68.958900000000014 53.253000000000007 54.481000000000009 30.709750000000003 31.238450000000004 22.557150000000004 27.486150000000006 46.012350000000005 39.028650000000006 35.982800000000005 36.663650000000011 30.710000000000004 38.718450000000011 20.920950000000001 39.93030000000001 34.149650000000008 29.518700000000003 38.395000000000003 35.978500000000004 41.427800000000012 41.962100000000007 40.899450000000009 73.716300000000018
decision_type=2 2 2 2 2 2 2 2 2 2 2 2 2 2 2 2 2 2 2 2 2 2 2 2 2 2 2 2 2 2
left_child=2 6 5 8 11 12 21 9 -3 -5 15 16 -1 -7 25 -6 18 24 -4 -13 -14 22 -2 -15 -12 -8 28 -28 -27 -9
right_child=1 3 4 7 10 13 14 29 -10 -11 17 19 20 23 -16 -17 -18 -19 -20 -21 -22 -23 -24 -25 -26 26 27 -29 -30 -31
leaf_value=-0.3790809566878694 0.37757756281644106 0.29756252762664848 -0.18819402620040165 1.0809596884250643 -0.11117027325198761 -0.23249185051850296 -0.013308349549770355 0.70422017794799041 0.38611310597799076 0.52214552061859432 -0.02143334729705142 -0.087078133668599178 -0.53011548198533787 -0.18655631483182278 0.21811609411535682 -0.46852710247039797 -0.3941890069771381 0.010749330632715567 -0.11059085438598429 -0.41861341357231141 -0.27272903208048799 0.10478981460113353 0.051041276804751172 -0.14456019001861711 -0.11391416954165497 0.22532347987749077 -0.15059974466760953 0.16061940301162414 0.51679240058768883 0.8572420635843665
leaf_weight=556 22 1740 811 20 364 1640 50 123 1835 369 2273 3403 33 2537 1839 22 42 3685 751 20 2311 2682 1205 1640 216 38 24 1251 33 123
leaf_count=556 22 1740 811 20 364 1640 50 123 1835 369 2273 3403 33 2537 1839 22 42 3685 751 20 2311 2682 1205 1640 216 38 24 1251 33 123
internal_value=0 0.229599 -0.127641 0.387797 -0.0553569 -0.223724 0.136372 0.639922 0.343014 0.550876 -0.0128789 -0.110789 -0.296048 -0.187667 0.192701 -0.131538 -0.157254 -0.00546035 -0.150883 -0.0890152 -0.276353 0.0897564 0.056896 -0.170068 -0.029459 0.15922 0.165629 0.154761 0.360795 0.780731
internal_weight=0 11354 20304 4210 11587 8717 7144 635 3575 389 6560 5027 2900 5817 3235 386 1604 6174 1562 3423 2344 3909 1227 4177 2489 1396 1346 1275 71 246
internal_count=31658 11354 20304 4210 11587 8717 7144 635 3575 389 6560 5027 2900 5817 3235 386 1604 6174 1562 3423 2344 3909 1227 4177 2489 1396 1346 1275 71 246
is_linear=0
shrinkage=0.2


Tree=11
num_leaves=31
num_cat=0
split_feature=4 4 4 4 4 2 4 4 0 4 4 2 0 2 2 4 1 2 2 0 2 2 0 2 0 3 3 2 0 0
split_gain=14915.3 2878.68 2084.23 689.612 439.173 383.252 379.787 109.474 97.623 86.5658 79.9652 66.3054 56.9935 67.7144 53.6781 52.3988 46.3897 46.2018 49.9902 43.3199 42.7228 42.6233 39.4148 37.8798 51.0892 37.5085 37.1978 34.5385 34.1453 33.3617
threshold=39.473900000000008 50.499150000000007 30.887350000000001 60.611650000000004 44.601300000000009 25.161900000000006 34.150950000000009 55.837650000000004 30.709750000000003 73.716300000000018 25.888600000000004 19.774500000000003 31.238450000000004 36.557500000000012 40.392300000000013 47.833650000000006 26.016100000000005 37.984550000000006 45.842050000000008 35.978500000000004 32.302200000000006 27.591050000000006 30.524450000000005 56.248900000000013 62.680100000000003 50.204600000000006 31.072150000000004 30.710000000000004 51.54975000000001 25.887300000000003
decision_type=2 2 2 2 2 2 2 2 2 2 2 2 2 2 2 2 2 2 2 2 2 2 2 2 2 2 2 2 2 2
left_child=2 4 5 7 14 11 12 -3 16 23 -7 -1 13 27 20 17 -8 -6 19 -19 -2 -12 -18 -5 -25 -17 -10 -4 -16 -13
right_child=1 3 6 9 15 10 8 -9 26 -11 21 29 -14 -15 28 25 22 18 -20 -21 -22 -23 -24 24 -26 -27 -28 -29 -30 -31
leaf_value=-0.39389308436758941 0.24979710449513637 0.26466620210093611 -0.1478313188918548 0.76114195227622994 0.42121290067831679 -0.20457299326208062 -0.36197855511197341 0.34470233151660806 -0.17027530883406772 0.68579365489928712 -0.17576502482329689 -0.25826515790161769 -0.076876161436595564 -0.46494931319485544 0.087794313367634588 0.21616517184605699 -0.072635246217933477 -0.16931526904756375 0.17018503435804577 0.11466162436780139 0.035063324935144434 -0.13525363686823919 -0.29154498020393982 0.38569820792828174 0.53865797293397621 0.14152008719702133 -0.0093412244182145762 -0.086865791530637573 -0.16225289302793416 -0.19618310285180024
leaf_weight=126 38 2234 790 20 24 1098 27 985 58 123 1389 1536 3026 23 3095 982 382 22 1147 922 1500 4121 36 144 222 371 6046 702 22 447
leaf_count=126 38 2234 790 20 24 1098 27 985 58 123 1389 1536 3026 23 3095 982 382 22 1147 922 1500 4121 36 144 222 371 6046 702 22 447
internal_value=0 0.17786 -0.105802 0.323362 0.111083 -0.178979 -0.0482828 0.289157 -0.0174635 0.539682 -0.155287 -0.25321 -0.0927302 -0.124396 0.0709433 0.16496 -0.1079 0.145298 0.142131 0.108044 0.0403688 -0.145466 -0.0914887 0.493123 0.478477 0.195697 -0.0108704 -0.119146 0.0860295 -0.244271
internal_weight=0 11851 19807 3728 8123 8717 11090 3219 6549 509 6608 2109 4541 1515 4655 3468 445 2115 2091 944 1538 5510 418 386 366 1353 6104 1492 3117 1983
internal_count=31658 11851 19807 3728 8123 8717 11090 3219 6549 509 6608 2109 4541 1515 4655 3468 445 2115 2091 944 1538 5510 418 386 366 1353 6104 1492 3117 1983
is_linear=0
shrinkage=0.2


Tree=12
num_leaves=31
num_cat=0
split_feature=4 4 2 4 4 4 4 2 4 4 4 0 0 4 0 1 4 3 3 3 3 3 1 3 3 1 3 0 4 3
split_gain=9556.07 1605.69 1560.65 380.589 310.306 307.855 253.24 117.816 74.9525 71.7001 68.2846 62.4568 48.9972 47.1543 48.1953 46.2491 46.1864 47.6816 41.1574 40.6559 39.1412 39.1211 98.2631 38.1469 55.1613 42.9403 37.9332 36.3085 35.0299 49.7859
threshold=40.393850000000008 52.128050000000009 31.930600000000002 62.762600000000006 26.019100000000005 45.668950000000002 34.547000000000004 44.448500000000003 29.034400000000002 58.066850000000009 22.920950000000001 34.251250000000006 30.153950000000005 43.15270000000001 37.362700000000011 46.396350000000005 38.298800000000007 39.127900000000004 42.525300000000009 32.40420000000001 42.680900000000008 26.429950000000002 24.849550000000004 39.70000000000001 35.792500000000011 44.277000000000008 35.026500000000006 41.03305000000001 35.391000000000005 29.320900000000005
decision_type=2 2 2 2 2 2 2 2 2 2 2 2 2 2 2 2 2 2 2 2 2 2 2 2 2 2 2 2 2 2
left_child=2 5 4 7 10 13 12 -3 -6 -9 -1 -8 26 23 18 -7 17 19 -15 -13 -18 22 -10 24 -2 -25 -4 -14 -23 -30
right_child=1 3 6 -5 8 15 11 9 21 -11 -12 16 27 14 -16 -17 20 -19 -20 -21 -22 28 -24 25 -26 -27 -28 -29 29 -31
leaf_value=-0.24173205719868604 0.25202219104394319 0.71113201163031847 -0.10759992131350063 0.46524808966413894 -0.13624742955684621 0.11449480087477662 -0.044294037551390407 0.23014687640728693 0.1024545472348109 0.3148656756906989 -0.17187587262599402 0.26658358632222467 -0.055032236485750646 0.042865067187410136 0.10142481191710284 0.16479492480387312 0.036203186207213529 -0.070344889673586666 -0.24365966400966566 -0.00035301190715255476 -0.09512835063824529 -0.096668408874915693 -0.30020419784635305 0.079389518522284527 -0.020523599766032852 0.011523285019115854 -0.29729539674330269 -0.23391596721890184 0.28354512214660649 -0.045612400734083243
leaf_weight=760 32 22 410 377 3143 1047 1130 2091 32 494 2124 23 3403 65 1773 2424 2040 419 29 2961 95 3831 100 1592 414 487 47 46 20 227
leaf_count=760 32 22 410 377 3143 1047 1130 2091 32 494 2124 23 3403 65 1773 2424 2040 419 29 2961 95 3831 100 1592 414 487 47 46 20 227
internal_value=0 0.15251 -0.0790214 0.277421 -0.134685 0.105107 -0.0251321 0.250259 -0.112877 0.246337 -0.190285 -0.00144321 -0.0655719 0.0699258 0.0940259 0.149622 0.00730028 -0.00716672 -0.0455309 0.00170448 0.0303594 -0.0954303 -0.20259 0.0521061 -0.000968745 0.063492 -0.127109 -0.057418 -0.0919617 -0.01896
internal_weight=0 10847 20811 2984 10237 7863 10574 2607 7353 2585 2884 6668 3906 4392 1867 3471 5538 3403 94 2984 2135 4210 132 2525 446 2079 457 3449 4078 247
internal_count=31658 10847 20811 2984 10237 7863 10574 2607 7353 2585 2884 6668 3906 4392 1867 3471 5538 3403 94 2984 2135 4210 132 2525 446 2079 457 3449 4078 247
is_linear=0
shrinkage=0.2


Tree=13
num_leaves=31
num_cat=0
split_feature=4 4 4 4 4 4 2 2 2 0 3 4 0 0 3 2 4 1 2 0 3 3 4 2 0 2 3 3 4 4
split_gain=6129.85 1213.98 882.507 318.509 212.892 135.899 128.409 81.248 88.7527 71.125 55.6947 53.4278 48.104 46.6133 53.349 36.676 41.5025 38.8576 36.2495 35.8832 43.9473 35.8211 35.1969 41.0171 34.0686 33.6262 33.2977 32.7961 56.6773 38.9064
threshold=39.473900000000008 49.440650000000005 29.806150000000006 59.576150000000005 35.289450000000009 43.15270000000001 25.161900000000006 54.481000000000009 68.924350000000018 31.238450000000004 37.363450000000007 54.171600000000005 39.698250000000009 37.464850000000006 39.932950000000005 30.710000000000004 34.93160000000001 30.075550000000003 19.774500000000003 36.859150000000007 41.166650000000004 29.320900000000005 33.374450000000003 30.710000000000004 32.817550000000004 28.551400000000005 45.492450000000012 41.962100000000007 43.951750000000011 44.778050000000007
decision_type=2 2 2 2 2 2 2 2 2 2 2 2 2 2 2 2 2 2 2 2 2 2 2 2 2 2 2 2 2 2
left_child=2 5 6 11 9 26 18 -5 -9 10 15 -3 22 -7 -15 16 -4 -17 -1 20 21 -6 -11 24 -24 -23 -2 28 -16 -30
right_child=1 3 4 7 19 13 -8 8 -10 12 -12 -13 -14 14 27 17 -18 -19 -20 -21 -22 25 23 -25 -26 -27 -28 -29 29 -31
leaf_value=-0.26938381520504623 0.040438653791548131 0.15657056978672546 -0.09741400164960462 0.70841653722931042 0.24049149510406315 -0.016736852222835864 -0.10655596847949433 0.25471505926205656 0.4098687502370793 -0.052992775220745296 -0.38699517995119098 0.20623004725409563 -0.13680609449606085 0.31962511930614712 -0.10279669666607838 0.0036447192916472153 -0.35238307939412505 -0.077627977289583233 -0.15871340217909788 0.010908962852419721 -0.24535352085317885 -0.22548295427113774 0.31281625595357687 -0.022763202637129019 -0.0020510752286229815 -0.018946061212970901 -0.10088274695718771 0.097064474425622993 0.25933262702337528 -0.00012289755046367644
leaf_weight=126 3461 2099 1432 22 21 154 5140 366 247 2796 24 1476 209 42 90 331 26 814 1959 2818 35 32 27 1836 28 2153 68 3733 43 50
leaf_count=126 3461 2099 1432 22 21 154 5140 366 247 2796 24 1476 209 42 90 331 26 814 1959 2818 35 32 27 1836 28 2153 68 3733 43 50
internal_value=0 0.114021 -0.0678273 0.200258 -0.0358366 0.066507 -0.123538 0.330785 0.317232 -0.0571706 -0.0837189 0.177073 -0.0429258 0.0912164 0.0954167 -0.0809226 -0.101961 -0.0541334 -0.165401 -0.00411186 -0.0230002 -0.0194723 -0.0387396 -0.0176651 0.15252 -0.0219709 0.0377155 0.093012 0.0103468 0.11984
internal_weight=0 11851 19807 4210 12582 7641 7225 635 613 7523 2627 3575 4896 4112 3958 2603 1458 1145 2085 5059 2241 2206 4687 1891 55 2185 3529 3916 183 93
internal_count=31658 11851 19807 4210 12582 7641 7225 635 613 7523 2627 3575 4896 4112 3958 2603 1458 1145 2085 5059 2241 2206 4687 1891 55 2185 3529 3916 183 93
is_linear=0
shrinkage=0.2


Tree=14
num_leaves=31
num_cat=0
split_feature=4 2 4 2 4 3 4 4 4 3 4 3 2 2 4 3 2 0 3 4 4 1 0 2 2 3 3 0 3 3
split_gain=3942.76 714.958 613.159 233.068 178.361 157.206 113.524 84.6483 55.8326 46.617 41.227 35.861 34.2454 31.6194 30.3691 30.373 29.9414 50.0543 28.0926 28.0581 41.8424 27.3217 38.4724 62.0027 29.4785 26.0968 53.2646 27.1543 25.9698 39.8446
threshold=41.035600000000009 33.096700000000006 52.397600000000004 44.448500000000003 28.024050000000006 68.958900000000014 45.668950000000002 36.459100000000007 23.479900000000004 38.825650000000003 57.568000000000005 47.836100000000009 20.920950000000001 48.714000000000006 32.912150000000004 34.936550000000004 46.012350000000005 41.554150000000007 42.525300000000009 37.686950000000003 38.078950000000013 48.253050000000009 41.951400000000007 39.584600000000009 48.973950000000009 33.379400000000011 34.055900000000008 34.446400000000004 40.038700000000013 37.581150000000008
decision_type=2 2 2 2 2 2 2 2 2 2 2 2 2 2 2 2 2 2 2 2 2 2 2 2 2 2 2 2 2 2
left_child=1 4 6 -4 8 10 11 9 -1 14 13 21 -10 -5 15 -3 -8 -18 25 -6 -21 22 28 -24 -23 -9 -27 -28 29 -2
right_child=2 7 3 5 19 -7 16 18 12 -11 -12 -13 -14 -15 -16 -17 17 -19 -20 20 -22 24 23 -25 -26 26 27 -29 -30 -31
leaf_value=-0.15243162532413151 0.12553659021144822 -0.039343618199048191 0.86152504742145541 0.011698552311452873 -0.062302157835535832 0.32779528054443657 0.06410372211413827 -0.19900913795699246 -0.29948735646355679 -0.14315962990849382 0.20127726221164763 -0.094118827953934669 -0.097903268105838825 0.15068574301456075 -0.013386516692298756 -0.14051319031665724 -0.10679962460038275 0.11067581648285069 -0.059604751180688087 0.22623824061769429 -0.035173036875693418 -0.068478575330227609 0.3672774742756571 0.067636892878914071 0.130147851482769 0.26035615767751424 -0.03353912246517235 0.017743671327737649 0.044269251321423835 -0.050219984313375078
leaf_weight=1003 63 1178 20 68 6734 250 835 23 34 135 747 70 3942 1762 3200 132 43 2730 220 33 95 140 28 2051 38 35 458 4204 1102 285
leaf_count=1003 63 1178 20 68 6734 250 835 23 34 135 747 70 3942 1762 3200 132 43 2730 220 33 95 140 28 2051 38 35 458 4204 1102 285
internal_value=0 -0.0485777 0.102333 0.181186 -0.0814479 0.176373 0.0719346 -0.00797102 -0.110264 -0.0273537 0.161683 0.0476987 -0.0996271 0.145521 -0.0238872 -0.0495378 0.0973058 0.107303 0.0102542 -0.060539 0.0322221 0.0503767 0.0542329 0.0716725 -0.0260752 0.0135103 0.014551 0.0127056 0.0292282 -0.018402
internal_weight=0 21426 10232 2847 11841 2827 7385 9585 4979 4645 2577 3777 3976 1830 4510 1310 3608 2773 4940 6862 128 3707 3529 2079 178 4720 4697 4662 1450 348
internal_count=31658 21426 10232 2847 11841 2827 7385 9585 4979 4645 2577 3777 3976 1830 4510 1310 3608 2773 4940 6862 128 3707 3529 2079 178 4720 4697 4662 1450 348
is_linear=0
shrinkage=0.2


Tree=15
num_leaves=31
num_cat=0
split_feature=4 4 4 4 4 3 3 4 1 3 0 1 4 2 2 2 2 3 1 4 0 4 4 3 4 4 1 0 1 3
split_gain=2498.16 522.916 332.506 150.711 97.0426 70.3152 60.6946 56.7294 50.7736 45.7504 44.0801 43.4484 46.7762 39.521 62.1935 35.8128 35.1712 51.4049 32.054 31.8155 46.8928 29.5287 27.736 27.6174 34.945 27.3637 48.8897 49.1603 25.634 25.3382
threshold=42.10070000000001 34.837600000000002 55.837650000000004 27.826750000000001 48.473900000000008 43.644100000000009 36.959250000000004 68.958900000000014 32.130750000000013 24.142250000000001 25.329250000000005 24.999700000000004 29.134550000000001 25.329250000000005 24.853300000000004 48.473900000000008 37.984550000000006 43.959950000000006 47.636800000000001 19.800400000000003 19.781650000000003 36.959350000000008 28.452850000000002 32.217600000000012 32.026500000000006 34.055900000000008 29.801550000000002 28.747550000000004 26.673000000000005 33.942600000000006
decision_type=2 2 2 2 2 2 2 2 2 2 2 2 2 2 2 2 2 2 2 2 2 2 2 2 2 2 2 2 2 2
left_child=1 3 4 19 8 -6 9 15 -2 -5 11 12 22 14 -12 -4 -3 21 -7 20 -1 -18 -11 25 29 -15 27 -27 -13 -25
right_child=2 16 7 6 5 18 -8 -9 -10 10 13 28 -14 23 -16 -17 17 -19 -20 -21 -22 -23 -24 24 -26 26 -28 -29 -30 -31
leaf_value=-0.32039937460631657 -0.2252488586765069 -0.0086610573892328888 0.41754417774223146 0.19741566544398667 0.44003716929582881 0.049977815122587123 -0.16711379837704443 0.2645875693665995 0.055052443920778932 -0.018831810806736803 -0.065450927828039449 -0.25458046647105764 0.12154904847242394 -0.047573994532190474 0.32698129036774243 0.15413362358640073 -0.022077499374489426 -0.099109298682638583 0.10508759421319372 -0.084461751932226742 -0.072756353359330783 0.027640692223434356 -0.2921624466224953 -0.041669884156123993 -0.014864629709119418 -0.17261305138468744 -0.21289017235465124 0.27082951948046685 -0.094717775600563214 -0.11886138463896101
leaf_weight=57 26 4070 21 32 24 501 156 241 4458 33 35 94 49 5179 30 1224 549 147 2683 4644 66 3686 27 717 2548 20 99 20 70 223
leaf_count=57 26 4070 21 32 24 501 156 241 4458 33 35 94 49 5179 30 1224 549 147 2683 4644 66 3686 27 717 2548 20 99 20 70 223
internal_value=0 -0.0346089 0.08916 -0.0581892 0.0724281 0.0989868 -0.0434103 0.17577 0.0534271 -0.0413072 -0.0421426 -0.121299 -0.0234306 -0.0397066 0.115672 0.158577 0.00472592 0.0171597 0.0964161 -0.0871208 -0.187518 0.0211955 -0.141831 -0.0408535 -0.0270236 -0.0499243 -0.137495 0.0491082 -0.186346 -0.0599823
internal_weight=0 22551 9178 14099 7692 3208 9332 1486 4484 9176 9144 273 109 8871 65 1245 8452 4382 3184 4767 123 4235 60 8806 3488 5318 139 40 164 940
internal_count=31729 22551 9178 14099 7692 3208 9332 1486 4484 9176 9144 273 109 8871 65 1245 8452 4382 3184 4767 123 4235 60 8806 3488 5318 139 40 164 940
is_linear=0
shrinkage=0.2


Tree=16
num_leaves=31
num_cat=0
split_feature=4 4 4 4 1 4 3 3 3 3 1 4 1 3 0 1 4 1 4 3 1 1 0 1 0 0 1 2 3 2
split_gain=1607.75 366.994 196.2 98.2633 60.4178 56.7541 44.1898 41.7849 41.1406 41.3472 37.5638 30.1078 33.0127 28.9361 29.7139 36.1631 28.5474 28.2931 37.971 26.9743 25.058 24.8668 23.7331 22.923 20.6488 34.1559 19.5288 21.9106 18.9367 44.1268
threshold=42.835150000000006 34.837600000000002 57.142750000000014 29.034400000000002 23.480750000000004 48.473900000000008 43.644100000000009 54.478450000000002 27.364950000000004 36.959250000000004 60.598450000000007 23.691950000000002 30.988750000000007 45.492450000000012 37.883950000000006 39.697600000000008 31.927200000000003 29.228700000000003 29.428550000000005 33.855250000000005 47.636800000000001 32.216750000000012 51.046200000000006 48.253050000000009 34.932950000000012 36.550050000000006 35.792500000000011 35.689000000000007 24.142250000000001 26.171200000000002
decision_type=2 2 2 2 2 2 2 2 2 2 2 2 2 2 2 2 2 2 2 2 2 2 2 2 2 2 2 2 2 2
left_child=1 3 5 11 -5 21 -7 -4 16 -10 -9 -1 28 14 15 -3 17 18 -6 -16 -8 -2 -23 26 -17 -26 27 -21 29 -13
right_child=2 13 7 4 8 6 20 10 9 -11 -12 12 -14 -15 19 24 -18 -19 -20 23 -22 22 -24 -25 25 -27 -28 -29 -30 -31
leaf_value=-0.094893035338758369 -0.17589363738894465 -0.0025497152742509216 0.39916714827219646 0.27276382704193775 -0.015349573086874159 0.35202973327444248 0.038749121528924416 0.11493028514448295 -0.02778546367763848 -0.13216034631094625 0.1899256063280429 -0.10477376673206491 -0.10444298158093733 -0.13464288037077682 -0.2154513119906187 -0.26955439228078593 0.096776468058427184 0.021005765311419965 -0.21616969383063003 0.025228030174165163 0.086612157204712215 0.051958869369870833 -0.010749831907882654 -0.15700108093520007 0.081504848731888679 -0.12235662411348742 0.019930489151106803 -0.19242828261811992 -0.048742073626364131 0.17349327504634859
leaf_weight=1122 20 3922 27 26 51 24 511 619 7388 155 470 454 563 59 20 23 24 40 144 37 3043 3555 259 30 45 122 4807 37 4108 24
leaf_count=1122 20 3922 27 26 51 24 511 619 7388 155 470 454 563 59 20 23 24 40 144 37 3043 3555 259 30 45 122 4807 37 4108 24
internal_value=0 -0.0263407 0.0752118 -0.0465514 -0.0316071 0.0634406 0.0815568 0.153391 -0.0326214 -0.0299302 0.147297 -0.0652061 -0.0587371 0.00496561 0.00587646 -0.0066779 -0.110998 -0.132217 -0.163648 0.0163456 0.0797303 0.0465341 0.0477005 0.0172896 -0.0918923 -0.0674239 0.0183609 -0.0836001 -0.053126 -0.0908022
internal_weight=0 23201 8528 14099 7828 7412 3578 1116 7802 7543 1089 6271 5149 9102 9043 4112 259 235 195 4931 3554 3834 3814 4911 190 167 4881 74 4586 478
internal_count=31729 23201 8528 14099 7828 7412 3578 1116 7802 7543 1089 6271 5149 9102 9043 4112 259 235 195 4931 3554 3834 3814 4911 190 167 4881 74 4586 478
is_linear=0
shrinkage=0.2


Tree=17
num_leaves=31
num_cat=0
split_feature=4 4 4 4 0 4 3 1 1 3 3 4 0 0 1 0 3 2 3 4 4 0 1 4 0 1 0 1 3 1
split_gain=1032.06 250.88 121.416 45.4367 39.123 38.0673 38.6218 56.6604 37.4726 35.7313 34.4542 33.4322 30.4264 49.7601 37.5501 37.2292 28.7718 39.333 35.7001 27.5933 26.979 41.2982 26.3963 39.9994 38.7236 26.3887 25.7645 92.1091 27.151 28.7027
threshold=43.15270000000001 32.912150000000004 55.837650000000004 27.3627 35.391000000000005 38.298800000000007 38.825650000000003 32.821750000000009 38.395300000000013 43.644100000000009 35.026500000000006 73.716300000000018 33.855250000000005 34.055900000000008 33.945000000000007 28.649900000000006 34.839150000000011 36.051200000000009 36.352750000000007 39.127100000000006 47.833650000000006 39.342250000000007 23.480750000000004 29.034400000000002 26.014350000000004 27.237300000000005 26.549300000000006 25.749350000000003 26.16985 26.016100000000005
decision_type=2 2 2 2 2 2 2 2 2 2 2 2 2 2 2 2 2 2 2 2 2 2 2 2 2 2 2 2 2 2
left_child=1 3 4 -1 -2 6 -3 -8 9 -6 22 -4 15 -14 -15 -7 -16 -18 19 -19 21 -10 23 -5 25 -24 27 -26 29 -28
right_child=2 5 11 10 8 12 7 -9 20 -11 -12 -13 13 14 16 -17 17 18 -20 -21 -22 -23 24 -25 26 -27 28 -29 -30 -31
leaf_value=-0.05796303236628364 -0.082284243163568055 -0.0051222979853156152 0.10439573359243093 -0.014335587750310484 0.24921203588601204 0.13807127524066617 -0.38898445248603819 -0.046666296155551318 -0.080751779180919303 -0.0047855908051133156 -0.11561600322020241 0.21408463879065082 0.33193756375461819 0.22216371062610829 -0.20891229426083358 -0.076609027835759624 0.11002861162614541 0.0067678005695343026 0.013733345102696843 -0.27773216933012013 0.06196679045355246 0.040916709307407713 -0.058160572944511338 0.3086912378020909 0.32403673437473024 -0.1651399037199876 -0.30974312493434319 -0.022771073038442224 -0.027362874106604249 -0.071756942585394112
leaf_weight=4262 88 6301 1365 46 72 37 20 587 116 32 192 121 20 35 23 255 169 25 4353 30 3531 2937 360 23 38 124 26 158 6291 92
leaf_count=4262 88 6301 1365 46 72 37 20 587 116 32 192 121 20 35 23 255 169 25 4353 30 3531 2937 360 23 38 124 26 158 6291 92
internal_value=0 -0.0206393 0.0615545 -0.0415338 0.0502006 -0.000173113 -0.00976381 -0.0579453 0.0519438 0.171059 -0.0320071 0.113327 0.0132194 0.0171478 0.0157894 -0.0494064 0.0142192 0.0153405 0.0117102 -0.148414 0.0500623 0.0362939 -0.0297644 0.09334 -0.0309627 -0.0855685 -0.0269613 0.0444672 -0.0291457 -0.124195
internal_weight=0 23467 8262 11612 6776 11855 6908 607 6688 104 7350 1486 4947 4655 4635 292 4600 4577 4408 55 6584 3053 7158 69 7089 484 6605 196 6409 118
internal_count=31729 23467 8262 11612 6776 11855 6908 607 6688 104 7350 1486 4947 4655 4635 292 4600 4577 4408 55 6584 3053 7158 69 7089 484 6605 196 6409 118
is_linear=0
shrinkage=0.2


Tree=18
num_leaves=31
num_cat=0
split_feature=4 3 4 1 4 1 4 0 3 1 0 4 1 2 3 2 3 0 1 2 4 0 1 4 3 2 1 1 0 4
split_gain=667.397 178.191 73.1447 47.2157 40.6652 33.371 34.2055 32.4028 44.5899 28.4992 23.4037 21.7605 116.099 21.1996 19.4869 21.7721 24.15 34.2334 30.3491 28.0025 27.5397 25.6082 35.5137 26.7037 35.5405 24.5679 23.2315 28.271 22.9687 19.797
threshold=43.951750000000011 32.649550000000012 57.142750000000014 26.016100000000005 32.026500000000006 38.294900000000005 24.844900000000006 32.026350000000008 40.038700000000013 47.833650000000006 52.121200000000009 36.258250000000011 31.510050000000003 28.837250000000001 45.492450000000012 37.984550000000006 34.252750000000013 31.238450000000004 34.455900000000007 35.891400000000004 33.374450000000003 28.649900000000006 30.883850000000006 38.401050000000005 35.026500000000006 35.024650000000008 37.261850000000003 36.762600000000013 31.510050000000003 36.959350000000008
decision_type=2 2 2 2 2 2 2 2 2 2 2 2 2 2 2 2 2 2 2 2 2 2 2 2 2 2 2 2 2 2
left_child=1 5 7 -3 -5 6 -1 -2 -9 -4 -11 -8 13 -13 15 16 18 21 29 25 -21 23 -23 24 -18 26 27 -20 -19 -6
right_child=2 3 9 4 14 -7 11 8 -10 10 -12 12 -14 -15 -16 -17 17 28 19 20 -22 22 -24 -25 -26 -27 -28 -29 -30 -31
leaf_value=-0.058018366238424705 -0.21013598427176478 -0.25906268339604138 0.33604970216751101 -0.046079378830949411 0.031553144606156783 -0.23493388769301504 -0.029405545909460481 0.25533720970153811 0.043520997562795059 -0.026305070258677007 0.10217106813142048 0.16247026168781778 -0.20969162494875493 0.44401604086160662 -0.065054708956940779 0.013345981095261333 0.16833027328054112 0.14276559178422138 -0.01063454106435298 0.19603599308227951 -0.0070303552290972545 -0.19881637489672788 -0.045623301524923457 0.21322571310130034 -0.15162245856552592 -0.114670459844172 -0.16263088066432929 0.22903092333248687 -0.0076619553054247808 0.14495036188710594
leaf_weight=1894 20 28 20 696 920 33 9239 40 6458 60 1036 23 32 20 163 5812 21 41 315 44 68 97 161 22 41 125 37 21 4176 66
leaf_count=1894 20 28 20 696 920 33 9239 40 6458 60 1036 23 32 20 163 5812 21 41 315 44 68 97 161 22 41 125 37 21 4176 66
internal_value=0 -0.0157163 0.0521432 0.000367635 0.000933989 -0.0341082 -0.0335169 0.0440426 0.0448249 0.0994551 0.0951377 -0.0285346 0.0787601 0.293422 0.00363154 0.0045671 -0.00372256 -0.0111349 0.017451 -0.0176129 0.0727457 -0.0719917 -0.103219 0.0239212 -0.0432514 -0.0379345 -0.0122187 0.00434455 -0.00619942 0.0391436
internal_weight=0 24095 7634 12854 12826 11241 11208 6518 6498 1116 1096 9314 75 43 12130 11967 6155 4559 1596 610 112 342 258 84 62 498 373 336 4217 986
internal_count=31729 24095 7634 12854 12826 11241 11208 6518 6498 1116 1096 9314 75 43 12130 11967 6155 4559 1596 610 112 342 258 84 62 498 373 336 4217 986
is_linear=0
shrinkage=0.2


Tree=19
num_leaves=31
num_cat=0
split_feature=4 3 0 2 3 1 1 1 4 0 4 2 2 0 1 2 4 3 2 1 3 1 0 0 2 0 0 1 0 4
split_gain=432.4 94.6331 66.6105 31.0587 33.4376 24.6373 49.8173 28.1651 24.1636 25.5089 22.934 26.7416 23.9605 27.2379 26.6706 19.7907 19.2117 38.5192 19.1684 27.884 18.1399 17.6464 29.657 17.2872 17.2703 16.6991 16.1473 29.8241 22.155 20.9854
threshold=42.10070000000001 32.304050000000011 55.831550000000007 29.804300000000005 35.026500000000006 32.130750000000013 33.945000000000007 35.115300000000005 19.800400000000003 19.781650000000003 32.026500000000006 31.414900000000003 30.435750000000002 30.079150000000002 30.621350000000003 29.612650000000006 33.941850000000009 33.286950000000012 31.760450000000002 32.926300000000005 33.008450000000003 44.277000000000008 46.006650000000008 32.216950000000004 41.696200000000005 29.228050000000003 35.890650000000008 37.060350000000007 35.024300000000004 38.936050000000009
decision_type=2 2 2 2 2 2 2 2 2 2 2 2 2 2 2 2 2 2 2 2 2 2 2 2 2 2 2 2 2 2
left_child=1 8 5 4 15 -2 -7 -8 9 -1 12 16 -5 14 -14 -3 -12 -18 19 20 -13 22 26 25 -24 -19 27 -20 -29 -30
right_child=2 3 -4 10 -6 6 7 -9 -10 -11 11 18 13 -15 -16 -17 17 23 21 -21 -22 -23 24 -25 -26 -27 -28 28 29 -31
leaf_value=-0.21414460904504123 -0.15123458892107011 -0.018647009115541142 0.076165252989840171 0.097153503560232668 -0.27451978596548238 0.33089269419116052 -0.16390650801360607 0.030261272958724019 -0.026967080236930868 -0.030844802618599856 0.011128016009809465 0.026177797112613917 -0.058631100100052506 -0.025435911154360044 -0.25292507449418983 -0.21434432575479151 0.29619953806201615 -0.046281660646200179 -0.002538904140215932 0.087381101139532083 -0.19203617627208588 -0.040187137807958094 0.24018042878896903 -0.089921157717704772 0.022227806540635917 0.17335887196991179 0.0079599686844341652 -0.10908235501421173 -0.04764015701382536 0.11586789004504681
leaf_weight=57 30 149 1466 53 30 22 30 7630 10626 65 127 20 79 645 44 24 36 20 3206 29 64 398 33 25 26 45 6370 194 146 40
leaf_count=57 30 149 1466 53 30 22 30 7630 10626 65 127 20 79 645 44 24 36 20 3206 29 64 398 33 25 26 45 6370 194 146 40
internal_value=0 -0.0144063 0.0370862 -0.00204293 -0.0795973 0.0296575 0.030364 0.0295008 -0.0279832 -0.116485 -0.000685726 0.00176855 -0.0329081 -0.0418838 -0.128135 -0.0457958 0.0660234 0.121355 0.000224134 -0.0817054 -0.14008 0.00111322 0.00275451 0.0514165 0.144134 0.105777 0.00191669 -0.00881831 -0.0617966 -0.0124771
internal_weight=0 22551 9178 11803 203 7712 7682 7660 10748 122 11600 10779 821 768 123 173 253 126 10526 113 84 10413 10015 90 59 65 9956 3586 380 186
internal_count=31729 22551 9178 11803 203 7712 7682 7660 10748 122 11600 10779 821 768 123 173 253 126 10526 113 84 10413 10015 90 59 65 9956 3586 380 186
is_linear=0
shrinkage=0.2


end of trees

feature_importances:
18.6518=303
16.8287=97
16.127=77
17.3193=72
21.5878=51

parameters:
[boosting: gbdt]
[objective: regression]
[metric: l2,auc]
[tree_learner: serial]
[device_type: cpu]
[data: ]
[valid: ]
[num_iterations: 20]
[learning_rate: 0.2]
[num_leaves: 31]
[num_threads: 0]
[deterministic: 0]
[force_col_wise: 1]
[force_row_wise: 0]
[histogram_pool_size: -1]
[max_depth: -1]
[min_data_in_leaf: 20]
[min_sum_hessian_in_leaf: 0.001]
[bagging_fraction: 0.8]
[pos_bagging_fraction: 1]
[neg_bagging_fraction: 1]
[bagging_freq: 5]
[bagging_seed: 3]
[feature_fraction: 0.9]
[feature_fraction_bynode: 1]
[feature_fraction_seed: 2]
[extra_trees: 0]
[extra_seed: 6]
[early_stopping_round: 0]
[first_metric_only: 0]
[max_delta_step: 0]
[lambda_l1: 0]
[lambda_l2: 0]
[linear_lambda: 0]
[min_gain_to_split: 0]
[drop_rate: 0.1]
[max_drop: 50]
[skip_drop: 0.5]
[xgboost_dart_mode: 0]
[uniform_drop: 0]
[drop_seed: 4]
[top_rate: 0.2]
[other_rate: 0.1]
[min_data_per_group: 100]
[max_cat_threshold: 32]
[cat_l2: 10]
[cat_smooth: 10]
[max_cat_to_onehot: 4]
[top_k: 20]
[monotone_constraints: ]
[monotone_constraints_method: basic]
[monotone_penalty: 0]
[feature_contri: ]
[forcedsplits_filename: ]
[refit_decay_rate: 0.9]
[cegb_tradeoff: 1]
[cegb_penalty_split: 0]
[cegb_penalty_feature_lazy: ]
[cegb_penalty_feature_coupled: ]
[path_smooth: 0]
[interaction_constraints: ]
[verbosity: 0]
[saved_feature_importance_type: 0]
[linear_tree: 0]
[max_bin: 255]
[max_bin_by_feature: ]
[min_data_in_bin: 3]
[bin_construct_sample_cnt: 200000]
[data_random_seed: 1]
[is_enable_sparse: 1]
[enable_bundle: 1]
[use_missing: 1]
[zero_as_missing: 0]
[feature_pre_filter: 1]
[pre_partition: 0]
[two_round: 0]
[header: 0]
[label_column: ]
[weight_column: ]
[group_column: ]
[ignore_column: ]
[categorical_feature: ]
[forcedbins_filename: ]
[precise_float_parser: 0]
[objective_seed: 5]
[num_class: 1]
[is_unbalance: 0]
[scale_pos_weight: 1]
[sigmoid: 1]
[boost_from_average: 1]
[reg_sqrt: 0]
[alpha: 0.9]
[fair_c: 1]
[poisson_max_delta_step: 0.7]
[tweedie_variance_power: 1.5]
[lambdarank_truncation_level: 30]
[lambdarank_norm: 1]
[label_gain: ]
[eval_at: ]
[multi_error_top_k: 1]
[auc_mu_weights: ]
[num_machines: 1]
[local_listen_port: 12400]
[time_out: 120]
[machine_list_filename: ]
[machines: ]
[gpu_platform_id: -1]
[gpu_device_id: -1]
[gpu_use_dp: 0]
[num_gpu: 1]

end of parameters

pandas_categorical:[]
